digraph Tree {
node [shape=box] ;
0 [label="X[0] <= 2.5\ngini = 0.4212\nsamples = 670\nvalue = [202, 468]"] ;
1 [label="X[1] <= 33.0\ngini = 0.4921\nsamples = 366\nvalue = [160, 206]"] ;
0 -> 1 [labeldistance=2.5, labelangle=45, headlabel="True"] ;
2 [label="X[2] <= 1.5\ngini = 0.4692\nsamples = 290\nvalue = [109, 181]"] ;
1 -> 2 ;
3 [label="X[3] <= 0.5\ngini = 0.4178\nsamples = 37\nvalue = [26, 11]"] ;
2 -> 3 ;
4 [label="gini = 0.0\nsamples = 10\nvalue = [10, 0]"] ;
3 -> 4 ;
5 [label="X[7] <= 3.5\ngini = 0.4829\nsamples = 27\nvalue = [16, 11]"] ;
3 -> 5 ;
6 [label="X[12] <= 39.0\ngini = 0.4898\nsamples = 14\nvalue = [6, 8]"] ;
5 -> 6 ;
7 [label="X[1] <= 22.0\ngini = 0.32\nsamples = 10\nvalue = [2, 8]"] ;
6 -> 7 ;
8 [label="gini = 0.0\nsamples = 5\nvalue = [0, 5]"] ;
7 -> 8 ;
9 [label="X[8] <= 2.5\ngini = 0.48\nsamples = 5\nvalue = [2, 3]"] ;
7 -> 9 ;
10 [label="gini = 0.0\nsamples = 2\nvalue = [0, 2]"] ;
9 -> 10 ;
11 [label="X[5] <= 3.0\ngini = 0.4444\nsamples = 3\nvalue = [2, 1]"] ;
9 -> 11 ;
12 [label="gini = 0.0\nsamples = 2\nvalue = [2, 0]"] ;
11 -> 12 ;
13 [label="gini = 0.0\nsamples = 1\nvalue = [0, 1]"] ;
11 -> 13 ;
14 [label="gini = 0.0\nsamples = 4\nvalue = [4, 0]"] ;
6 -> 14 ;
15 [label="X[4] <= 1078.0\ngini = 0.355\nsamples = 13\nvalue = [10, 3]"] ;
5 -> 15 ;
16 [label="X[8] <= 2.5\ngini = 0.4444\nsamples = 3\nvalue = [1, 2]"] ;
15 -> 16 ;
17 [label="gini = 0.0\nsamples = 1\nvalue = [1, 0]"] ;
16 -> 17 ;
18 [label="gini = 0.0\nsamples = 2\nvalue = [0, 2]"] ;
16 -> 18 ;
19 [label="X[5] <= 3.5\ngini = 0.18\nsamples = 10\nvalue = [9, 1]"] ;
15 -> 19 ;
20 [label="gini = 0.0\nsamples = 9\nvalue = [9, 0]"] ;
19 -> 20 ;
21 [label="gini = 0.0\nsamples = 1\nvalue = [0, 1]"] ;
19 -> 21 ;
22 [label="X[4] <= 10975.5\ngini = 0.4409\nsamples = 253\nvalue = [83, 170]"] ;
2 -> 22 ;
23 [label="X[4] <= 1373.0\ngini = 0.4312\nsamples = 248\nvalue = [78, 170]"] ;
22 -> 23 ;
24 [label="X[1] <= 11.5\ngini = 0.496\nsamples = 90\nvalue = [41, 49]"] ;
23 -> 24 ;
25 [label="X[12] <= 33.5\ngini = 0.2975\nsamples = 33\nvalue = [6, 27]"] ;
24 -> 25 ;
26 [label="X[11] <= 1.5\ngini = 0.4592\nsamples = 14\nvalue = [5, 9]"] ;
25 -> 26 ;
27 [label="X[4] <= 1221.5\ngini = 0.2188\nsamples = 8\nvalue = [1, 7]"] ;
26 -> 27 ;
28 [label="gini = 0.0\nsamples = 7\nvalue = [0, 7]"] ;
27 -> 28 ;
29 [label="gini = 0.0\nsamples = 1\nvalue = [1, 0]"] ;
27 -> 29 ;
30 [label="X[1] <= 7.5\ngini = 0.4444\nsamples = 6\nvalue = [4, 2]"] ;
26 -> 30 ;
31 [label="gini = 0.0\nsamples = 2\nvalue = [0, 2]"] ;
30 -> 31 ;
32 [label="gini = 0.0\nsamples = 4\nvalue = [4, 0]"] ;
30 -> 32 ;
33 [label="X[6] <= 2.0\ngini = 0.0997\nsamples = 19\nvalue = [1, 18]"] ;
25 -> 33 ;
34 [label="X[10] <= 2.5\ngini = 0.5\nsamples = 2\nvalue = [1, 1]"] ;
33 -> 34 ;
35 [label="gini = 0.0\nsamples = 1\nvalue = [0, 1]"] ;
34 -> 35 ;
36 [label="gini = 0.0\nsamples = 1\nvalue = [1, 0]"] ;
34 -> 36 ;
37 [label="gini = 0.0\nsamples = 17\nvalue = [0, 17]"] ;
33 -> 37 ;
38 [label="X[9] <= 2.0\ngini = 0.474\nsamples = 57\nvalue = [35, 22]"] ;
24 -> 38 ;
39 [label="X[16] <= 3.5\ngini = 0.4248\nsamples = 49\nvalue = [34, 15]"] ;
38 -> 39 ;
40 [label="X[11] <= 2.5\ngini = 0.4002\nsamples = 47\nvalue = [34, 13]"] ;
39 -> 40 ;
41 [label="X[2] <= 3.5\ngini = 0.4644\nsamples = 30\nvalue = [19, 11]"] ;
40 -> 41 ;
42 [label="X[4] <= 663.0\ngini = 0.4032\nsamples = 25\nvalue = [18, 7]"] ;
41 -> 42 ;
43 [label="gini = 0.0\nsamples = 1\nvalue = [0, 1]"] ;
42 -> 43 ;
44 [label="X[4] <= 1030.5\ngini = 0.375\nsamples = 24\nvalue = [18, 6]"] ;
42 -> 44 ;
45 [label="gini = 0.0\nsamples = 9\nvalue = [9, 0]"] ;
44 -> 45 ;
46 [label="X[1] <= 16.5\ngini = 0.48\nsamples = 15\nvalue = [9, 6]"] ;
44 -> 46 ;
47 [label="X[8] <= 2.5\ngini = 0.4688\nsamples = 8\nvalue = [3, 5]"] ;
46 -> 47 ;
48 [label="X[3] <= 1.0\ngini = 0.375\nsamples = 4\nvalue = [3, 1]"] ;
47 -> 48 ;
49 [label="gini = 0.0\nsamples = 3\nvalue = [3, 0]"] ;
48 -> 49 ;
50 [label="gini = 0.0\nsamples = 1\nvalue = [0, 1]"] ;
48 -> 50 ;
51 [label="gini = 0.0\nsamples = 4\nvalue = [0, 4]"] ;
47 -> 51 ;
52 [label="X[10] <= 1.5\ngini = 0.2449\nsamples = 7\nvalue = [6, 1]"] ;
46 -> 52 ;
53 [label="gini = 0.0\nsamples = 1\nvalue = [0, 1]"] ;
52 -> 53 ;
54 [label="gini = 0.0\nsamples = 6\nvalue = [6, 0]"] ;
52 -> 54 ;
55 [label="X[6] <= 4.5\ngini = 0.32\nsamples = 5\nvalue = [1, 4]"] ;
41 -> 55 ;
56 [label="gini = 0.0\nsamples = 3\nvalue = [0, 3]"] ;
55 -> 56 ;
57 [label="X[12] <= 50.0\ngini = 0.5\nsamples = 2\nvalue = [1, 1]"] ;
55 -> 57 ;
58 [label="gini = 0.0\nsamples = 1\nvalue = [1, 0]"] ;
57 -> 58 ;
59 [label="gini = 0.0\nsamples = 1\nvalue = [0, 1]"] ;
57 -> 59 ;
60 [label="X[8] <= 1.5\ngini = 0.2076\nsamples = 17\nvalue = [15, 2]"] ;
40 -> 60 ;
61 [label="X[6] <= 3.5\ngini = 0.5\nsamples = 2\nvalue = [1, 1]"] ;
60 -> 61 ;
62 [label="gini = 0.0\nsamples = 1\nvalue = [0, 1]"] ;
61 -> 62 ;
63 [label="gini = 0.0\nsamples = 1\nvalue = [1, 0]"] ;
61 -> 63 ;
64 [label="X[4] <= 1296.5\ngini = 0.1244\nsamples = 15\nvalue = [14, 1]"] ;
60 -> 64 ;
65 [label="gini = 0.0\nsamples = 12\nvalue = [12, 0]"] ;
64 -> 65 ;
66 [label="X[3] <= 4.0\ngini = 0.4444\nsamples = 3\nvalue = [2, 1]"] ;
64 -> 66 ;
67 [label="gini = 0.0\nsamples = 2\nvalue = [2, 0]"] ;
66 -> 67 ;
68 [label="gini = 0.0\nsamples = 1\nvalue = [0, 1]"] ;
66 -> 68 ;
69 [label="gini = 0.0\nsamples = 2\nvalue = [0, 2]"] ;
39 -> 69 ;
70 [label="X[3] <= 1.5\ngini = 0.2188\nsamples = 8\nvalue = [1, 7]"] ;
38 -> 70 ;
71 [label="gini = 0.0\nsamples = 1\nvalue = [1, 0]"] ;
70 -> 71 ;
72 [label="gini = 0.0\nsamples = 7\nvalue = [0, 7]"] ;
70 -> 72 ;
73 [label="X[1] <= 16.5\ngini = 0.3587\nsamples = 158\nvalue = [37, 121]"] ;
23 -> 73 ;
74 [label="X[18] <= 1.5\ngini = 0.18\nsamples = 60\nvalue = [6, 54]"] ;
73 -> 74 ;
75 [label="X[8] <= 3.5\ngini = 0.0928\nsamples = 41\nvalue = [2, 39]"] ;
74 -> 75 ;
76 [label="X[9] <= 1.5\ngini = 0.0487\nsamples = 40\nvalue = [1, 39]"] ;
75 -> 76 ;
77 [label="gini = 0.0\nsamples = 33\nvalue = [0, 33]"] ;
76 -> 77 ;
78 [label="X[3] <= 1.0\ngini = 0.2449\nsamples = 7\nvalue = [1, 6]"] ;
76 -> 78 ;
79 [label="gini = 0.0\nsamples = 1\nvalue = [1, 0]"] ;
78 -> 79 ;
80 [label="gini = 0.0\nsamples = 6\nvalue = [0, 6]"] ;
78 -> 80 ;
81 [label="gini = 0.0\nsamples = 1\nvalue = [1, 0]"] ;
75 -> 81 ;
82 [label="X[14] <= 2.5\ngini = 0.3324\nsamples = 19\nvalue = [4, 15]"] ;
74 -> 82 ;
83 [label="X[3] <= 2.5\ngini = 0.2311\nsamples = 15\nvalue = [2, 13]"] ;
82 -> 83 ;
84 [label="gini = 0.0\nsamples = 9\nvalue = [0, 9]"] ;
83 -> 84 ;
85 [label="X[8] <= 2.5\ngini = 0.4444\nsamples = 6\nvalue = [2, 4]"] ;
83 -> 85 ;
86 [label="X[10] <= 1.5\ngini = 0.4444\nsamples = 3\nvalue = [2, 1]"] ;
85 -> 86 ;
87 [label="gini = 0.0\nsamples = 1\nvalue = [0, 1]"] ;
86 -> 87 ;
88 [label="gini = 0.0\nsamples = 2\nvalue = [2, 0]"] ;
86 -> 88 ;
89 [label="gini = 0.0\nsamples = 3\nvalue = [0, 3]"] ;
85 -> 89 ;
90 [label="X[6] <= 1.5\ngini = 0.5\nsamples = 4\nvalue = [2, 2]"] ;
82 -> 90 ;
91 [label="gini = 0.0\nsamples = 2\nvalue = [0, 2]"] ;
90 -> 91 ;
92 [label="gini = 0.0\nsamples = 2\nvalue = [2, 0]"] ;
90 -> 92 ;
93 [label="X[18] <= 1.5\ngini = 0.4325\nsamples = 98\nvalue = [31, 67]"] ;
73 -> 93 ;
94 [label="X[7] <= 1.5\ngini = 0.4952\nsamples = 51\nvalue = [23, 28]"] ;
93 -> 94 ;
95 [label="gini = 0.0\nsamples = 6\nvalue = [0, 6]"] ;
94 -> 95 ;
96 [label="X[12] <= 30.5\ngini = 0.4998\nsamples = 45\nvalue = [23, 22]"] ;
94 -> 96 ;
97 [label="X[6] <= 1.5\ngini = 0.4844\nsamples = 34\nvalue = [14, 20]"] ;
96 -> 97 ;
98 [label="gini = 0.0\nsamples = 4\nvalue = [4, 0]"] ;
97 -> 98 ;
99 [label="X[12] <= 22.5\ngini = 0.4444\nsamples = 30\nvalue = [10, 20]"] ;
97 -> 99 ;
100 [label="gini = 0.0\nsamples = 3\nvalue = [3, 0]"] ;
99 -> 100 ;
101 [label="X[4] <= 2241.5\ngini = 0.3841\nsamples = 27\nvalue = [7, 20]"] ;
99 -> 101 ;
102 [label="X[8] <= 3.5\ngini = 0.4938\nsamples = 9\nvalue = [5, 4]"] ;
101 -> 102 ;
103 [label="X[10] <= 1.5\ngini = 0.4082\nsamples = 7\nvalue = [5, 2]"] ;
102 -> 103 ;
104 [label="gini = 0.0\nsamples = 2\nvalue = [0, 2]"] ;
103 -> 104 ;
105 [label="gini = 0.0\nsamples = 5\nvalue = [5, 0]"] ;
103 -> 105 ;
106 [label="gini = 0.0\nsamples = 2\nvalue = [0, 2]"] ;
102 -> 106 ;
107 [label="X[12] <= 24.5\ngini = 0.1975\nsamples = 18\nvalue = [2, 16]"] ;
101 -> 107 ;
108 [label="X[4] <= 3105.5\ngini = 0.5\nsamples = 2\nvalue = [1, 1]"] ;
107 -> 108 ;
109 [label="gini = 0.0\nsamples = 1\nvalue = [0, 1]"] ;
108 -> 109 ;
110 [label="gini = 0.0\nsamples = 1\nvalue = [1, 0]"] ;
108 -> 110 ;
111 [label="X[3] <= 0.5\ngini = 0.1172\nsamples = 16\nvalue = [1, 15]"] ;
107 -> 111 ;
112 [label="X[7] <= 3.5\ngini = 0.5\nsamples = 2\nvalue = [1, 1]"] ;
111 -> 112 ;
113 [label="gini = 0.0\nsamples = 1\nvalue = [0, 1]"] ;
112 -> 113 ;
114 [label="gini = 0.0\nsamples = 1\nvalue = [1, 0]"] ;
112 -> 114 ;
115 [label="gini = 0.0\nsamples = 14\nvalue = [0, 14]"] ;
111 -> 115 ;
116 [label="X[3] <= 2.5\ngini = 0.2975\nsamples = 11\nvalue = [9, 2]"] ;
96 -> 116 ;
117 [label="gini = 0.0\nsamples = 8\nvalue = [8, 0]"] ;
116 -> 117 ;
118 [label="X[12] <= 54.5\ngini = 0.4444\nsamples = 3\nvalue = [1, 2]"] ;
116 -> 118 ;
119 [label="gini = 0.0\nsamples = 2\nvalue = [0, 2]"] ;
118 -> 119 ;
120 [label="gini = 0.0\nsamples = 1\nvalue = [1, 0]"] ;
118 -> 120 ;
121 [label="X[11] <= 1.5\ngini = 0.2825\nsamples = 47\nvalue = [8, 39]"] ;
93 -> 121 ;
122 [label="X[12] <= 39.5\ngini = 0.4898\nsamples = 7\nvalue = [3, 4]"] ;
121 -> 122 ;
123 [label="X[16] <= 3.5\ngini = 0.375\nsamples = 4\nvalue = [3, 1]"] ;
122 -> 123 ;
124 [label="gini = 0.0\nsamples = 3\nvalue = [3, 0]"] ;
123 -> 124 ;
125 [label="gini = 0.0\nsamples = 1\nvalue = [0, 1]"] ;
123 -> 125 ;
126 [label="gini = 0.0\nsamples = 3\nvalue = [0, 3]"] ;
122 -> 126 ;
127 [label="X[15] <= 1.5\ngini = 0.2188\nsamples = 40\nvalue = [5, 35]"] ;
121 -> 127 ;
128 [label="X[7] <= 1.5\ngini = 0.3403\nsamples = 23\nvalue = [5, 18]"] ;
127 -> 128 ;
129 [label="X[4] <= 2409.0\ngini = 0.5\nsamples = 4\nvalue = [2, 2]"] ;
128 -> 129 ;
130 [label="gini = 0.0\nsamples = 1\nvalue = [1, 0]"] ;
129 -> 130 ;
131 [label="X[14] <= 2.5\ngini = 0.4444\nsamples = 3\nvalue = [1, 2]"] ;
129 -> 131 ;
132 [label="gini = 0.0\nsamples = 2\nvalue = [0, 2]"] ;
131 -> 132 ;
133 [label="gini = 0.0\nsamples = 1\nvalue = [1, 0]"] ;
131 -> 133 ;
134 [label="X[10] <= 3.5\ngini = 0.2659\nsamples = 19\nvalue = [3, 16]"] ;
128 -> 134 ;
135 [label="X[12] <= 35.5\ngini = 0.42\nsamples = 10\nvalue = [3, 7]"] ;
134 -> 135 ;
136 [label="gini = 0.0\nsamples = 5\nvalue = [0, 5]"] ;
135 -> 136 ;
137 [label="X[2] <= 3.5\ngini = 0.48\nsamples = 5\nvalue = [3, 2]"] ;
135 -> 137 ;
138 [label="gini = 0.0\nsamples = 3\nvalue = [3, 0]"] ;
137 -> 138 ;
139 [label="gini = 0.0\nsamples = 2\nvalue = [0, 2]"] ;
137 -> 139 ;
140 [label="gini = 0.0\nsamples = 9\nvalue = [0, 9]"] ;
134 -> 140 ;
141 [label="gini = 0.0\nsamples = 17\nvalue = [0, 17]"] ;
127 -> 141 ;
142 [label="gini = 0.0\nsamples = 5\nvalue = [5, 0]"] ;
22 -> 142 ;
143 [label="X[6] <= 1.5\ngini = 0.4415\nsamples = 76\nvalue = [51, 25]"] ;
1 -> 143 ;
144 [label="gini = 0.0\nsamples = 6\nvalue = [0, 6]"] ;
143 -> 144 ;
145 [label="X[2] <= 2.5\ngini = 0.3955\nsamples = 70\nvalue = [51, 19]"] ;
143 -> 145 ;
146 [label="X[17] <= 1.5\ngini = 0.2676\nsamples = 44\nvalue = [37, 7]"] ;
145 -> 146 ;
147 [label="X[7] <= 2.5\ngini = 0.1928\nsamples = 37\nvalue = [33, 4]"] ;
146 -> 147 ;
148 [label="X[4] <= 8814.5\ngini = 0.42\nsamples = 10\nvalue = [7, 3]"] ;
147 -> 148 ;
149 [label="X[1] <= 42.0\ngini = 0.48\nsamples = 5\nvalue = [2, 3]"] ;
148 -> 149 ;
150 [label="gini = 0.0\nsamples = 2\nvalue = [0, 2]"] ;
149 -> 150 ;
151 [label="X[5] <= 2.5\ngini = 0.4444\nsamples = 3\nvalue = [2, 1]"] ;
149 -> 151 ;
152 [label="gini = 0.0\nsamples = 2\nvalue = [2, 0]"] ;
151 -> 152 ;
153 [label="gini = 0.0\nsamples = 1\nvalue = [0, 1]"] ;
151 -> 153 ;
154 [label="gini = 0.0\nsamples = 5\nvalue = [5, 0]"] ;
148 -> 154 ;
155 [label="X[3] <= 7.5\ngini = 0.0713\nsamples = 27\nvalue = [26, 1]"] ;
147 -> 155 ;
156 [label="gini = 0.0\nsamples = 22\nvalue = [22, 0]"] ;
155 -> 156 ;
157 [label="X[10] <= 3.0\ngini = 0.32\nsamples = 5\nvalue = [4, 1]"] ;
155 -> 157 ;
158 [label="gini = 0.0\nsamples = 1\nvalue = [0, 1]"] ;
157 -> 158 ;
159 [label="gini = 0.0\nsamples = 4\nvalue = [4, 0]"] ;
157 -> 159 ;
160 [label="X[4] <= 5953.5\ngini = 0.4898\nsamples = 7\nvalue = [4, 3]"] ;
146 -> 160 ;
161 [label="X[12] <= 42.5\ngini = 0.375\nsamples = 4\nvalue = [1, 3]"] ;
160 -> 161 ;
162 [label="gini = 0.0\nsamples = 3\nvalue = [0, 3]"] ;
161 -> 162 ;
163 [label="gini = 0.0\nsamples = 1\nvalue = [1, 0]"] ;
161 -> 163 ;
164 [label="gini = 0.0\nsamples = 3\nvalue = [3, 0]"] ;
160 -> 164 ;
165 [label="X[5] <= 1.5\ngini = 0.497\nsamples = 26\nvalue = [14, 12]"] ;
145 -> 165 ;
166 [label="X[12] <= 32.0\ngini = 0.4012\nsamples = 18\nvalue = [13, 5]"] ;
165 -> 166 ;
167 [label="gini = 0.0\nsamples = 10\nvalue = [10, 0]"] ;
166 -> 167 ;
168 [label="X[1] <= 45.0\ngini = 0.4688\nsamples = 8\nvalue = [3, 5]"] ;
166 -> 168 ;
169 [label="gini = 0.0\nsamples = 5\nvalue = [0, 5]"] ;
168 -> 169 ;
170 [label="gini = 0.0\nsamples = 3\nvalue = [3, 0]"] ;
168 -> 170 ;
171 [label="X[12] <= 40.0\ngini = 0.2188\nsamples = 8\nvalue = [1, 7]"] ;
165 -> 171 ;
172 [label="gini = 0.0\nsamples = 7\nvalue = [0, 7]"] ;
171 -> 172 ;
173 [label="gini = 0.0\nsamples = 1\nvalue = [1, 0]"] ;
171 -> 173 ;
174 [label="X[4] <= 9569.0\ngini = 0.2381\nsamples = 304\nvalue = [42, 262]"] ;
0 -> 174 [labeldistance=2.5, labelangle=-45, headlabel="False"] ;
175 [label="X[12] <= 22.5\ngini = 0.2238\nsamples = 296\nvalue = [38, 258]"] ;
174 -> 175 ;
176 [label="X[11] <= 1.5\ngini = 0.4861\nsamples = 12\nvalue = [5, 7]"] ;
175 -> 176 ;
177 [label="gini = 0.0\nsamples = 3\nvalue = [3, 0]"] ;
176 -> 177 ;
178 [label="X[12] <= 19.5\ngini = 0.3457\nsamples = 9\nvalue = [2, 7]"] ;
176 -> 178 ;
179 [label="gini = 0.0\nsamples = 1\nvalue = [1, 0]"] ;
178 -> 179 ;
180 [label="X[12] <= 21.5\ngini = 0.2188\nsamples = 8\nvalue = [1, 7]"] ;
178 -> 180 ;
181 [label="gini = 0.0\nsamples = 6\nvalue = [0, 6]"] ;
180 -> 181 ;
182 [label="X[4] <= 1368.0\ngini = 0.5\nsamples = 2\nvalue = [1, 1]"] ;
180 -> 182 ;
183 [label="gini = 0.0\nsamples = 1\nvalue = [0, 1]"] ;
182 -> 183 ;
184 [label="gini = 0.0\nsamples = 1\nvalue = [1, 0]"] ;
182 -> 184 ;
185 [label="X[3] <= 4.5\ngini = 0.2054\nsamples = 284\nvalue = [33, 251]"] ;
175 -> 185 ;
186 [label="X[2] <= 0.5\ngini = 0.164\nsamples = 233\nvalue = [21, 212]"] ;
185 -> 186 ;
187 [label="gini = 0.0\nsamples = 2\nvalue = [2, 0]"] ;
186 -> 187 ;
188 [label="X[12] <= 67.0\ngini = 0.151\nsamples = 231\nvalue = [19, 212]"] ;
186 -> 188 ;
189 [label="X[12] <= 44.5\ngini = 0.1443\nsamples = 230\nvalue = [18, 212]"] ;
188 -> 189 ;
190 [label="X[0] <= 3.5\ngini = 0.1827\nsamples = 177\nvalue = [18, 159]"] ;
189 -> 190 ;
191 [label="X[11] <= 1.5\ngini = 0.355\nsamples = 26\nvalue = [6, 20]"] ;
190 -> 191 ;
192 [label="X[7] <= 3.5\ngini = 0.4959\nsamples = 11\nvalue = [5, 6]"] ;
191 -> 192 ;
193 [label="X[8] <= 2.5\ngini = 0.375\nsamples = 8\nvalue = [2, 6]"] ;
192 -> 193 ;
194 [label="X[4] <= 577.0\ngini = 0.4444\nsamples = 3\nvalue = [2, 1]"] ;
193 -> 194 ;
195 [label="gini = 0.0\nsamples = 1\nvalue = [0, 1]"] ;
194 -> 195 ;
196 [label="gini = 0.0\nsamples = 2\nvalue = [2, 0]"] ;
194 -> 196 ;
197 [label="gini = 0.0\nsamples = 5\nvalue = [0, 5]"] ;
193 -> 197 ;
198 [label="gini = 0.0\nsamples = 3\nvalue = [3, 0]"] ;
192 -> 198 ;
199 [label="X[1] <= 30.0\ngini = 0.1244\nsamples = 15\nvalue = [1, 14]"] ;
191 -> 199 ;
200 [label="gini = 0.0\nsamples = 12\nvalue = [0, 12]"] ;
199 -> 200 ;
201 [label="X[4] <= 4341.5\ngini = 0.4444\nsamples = 3\nvalue = [1, 2]"] ;
199 -> 201 ;
202 [label="gini = 0.0\nsamples = 1\nvalue = [1, 0]"] ;
201 -> 202 ;
203 [label="gini = 0.0\nsamples = 2\nvalue = [0, 2]"] ;
201 -> 203 ;
204 [label="X[12] <= 43.5\ngini = 0.1463\nsamples = 151\nvalue = [12, 139]"] ;
190 -> 204 ;
205 [label="X[5] <= 3.5\ngini = 0.1368\nsamples = 149\nvalue = [11, 138]"] ;
204 -> 205 ;
206 [label="X[4] <= 3346.0\ngini = 0.1815\nsamples = 109\nvalue = [11, 98]"] ;
205 -> 206 ;
207 [label="X[5] <= 2.5\ngini = 0.1214\nsamples = 77\nvalue = [5, 72]"] ;
206 -> 207 ;
208 [label="X[12] <= 42.5\ngini = 0.0615\nsamples = 63\nvalue = [2, 61]"] ;
207 -> 208 ;
209 [label="X[13] <= 1.5\ngini = 0.0333\nsamples = 59\nvalue = [1, 58]"] ;
208 -> 209 ;
210 [label="X[2] <= 3.0\ngini = 0.2778\nsamples = 6\nvalue = [1, 5]"] ;
209 -> 210 ;
211 [label="gini = 0.0\nsamples = 5\nvalue = [0, 5]"] ;
210 -> 211 ;
212 [label="gini = 0.0\nsamples = 1\nvalue = [1, 0]"] ;
210 -> 212 ;
213 [label="gini = 0.0\nsamples = 53\nvalue = [0, 53]"] ;
209 -> 213 ;
214 [label="X[9] <= 1.5\ngini = 0.375\nsamples = 4\nvalue = [1, 3]"] ;
208 -> 214 ;
215 [label="gini = 0.0\nsamples = 3\nvalue = [0, 3]"] ;
214 -> 215 ;
216 [label="gini = 0.0\nsamples = 1\nvalue = [1, 0]"] ;
214 -> 216 ;
217 [label="X[12] <= 29.5\ngini = 0.3367\nsamples = 14\nvalue = [3, 11]"] ;
207 -> 217 ;
218 [label="X[4] <= 1733.0\ngini = 0.4444\nsamples = 3\nvalue = [2, 1]"] ;
217 -> 218 ;
219 [label="gini = 0.0\nsamples = 2\nvalue = [2, 0]"] ;
218 -> 219 ;
220 [label="gini = 0.0\nsamples = 1\nvalue = [0, 1]"] ;
218 -> 220 ;
221 [label="X[15] <= 1.5\ngini = 0.1653\nsamples = 11\nvalue = [1, 10]"] ;
217 -> 221 ;
222 [label="gini = 0.0\nsamples = 7\nvalue = [0, 7]"] ;
221 -> 222 ;
223 [label="X[10] <= 2.5\ngini = 0.375\nsamples = 4\nvalue = [1, 3]"] ;
221 -> 223 ;
224 [label="gini = 0.0\nsamples = 1\nvalue = [1, 0]"] ;
223 -> 224 ;
225 [label="gini = 0.0\nsamples = 3\nvalue = [0, 3]"] ;
223 -> 225 ;
226 [label="X[16] <= 3.5\ngini = 0.3047\nsamples = 32\nvalue = [6, 26]"] ;
206 -> 226 ;
227 [label="X[1] <= 7.5\ngini = 0.2041\nsamples = 26\nvalue = [3, 23]"] ;
226 -> 227 ;
228 [label="gini = 0.0\nsamples = 1\nvalue = [1, 0]"] ;
227 -> 228 ;
229 [label="X[4] <= 7766.5\ngini = 0.1472\nsamples = 25\nvalue = [2, 23]"] ;
227 -> 229 ;
230 [label="X[4] <= 3735.5\ngini = 0.0868\nsamples = 22\nvalue = [1, 21]"] ;
229 -> 230 ;
231 [label="X[4] <= 3608.0\ngini = 0.32\nsamples = 5\nvalue = [1, 4]"] ;
230 -> 231 ;
232 [label="gini = 0.0\nsamples = 4\nvalue = [0, 4]"] ;
231 -> 232 ;
233 [label="gini = 0.0\nsamples = 1\nvalue = [1, 0]"] ;
231 -> 233 ;
234 [label="gini = 0.0\nsamples = 17\nvalue = [0, 17]"] ;
230 -> 234 ;
235 [label="X[11] <= 1.5\ngini = 0.4444\nsamples = 3\nvalue = [1, 2]"] ;
229 -> 235 ;
236 [label="gini = 0.0\nsamples = 1\nvalue = [1, 0]"] ;
235 -> 236 ;
237 [label="gini = 0.0\nsamples = 2\nvalue = [0, 2]"] ;
235 -> 237 ;
238 [label="X[4] <= 6536.0\ngini = 0.5\nsamples = 6\nvalue = [3, 3]"] ;
226 -> 238 ;
239 [label="gini = 0.0\nsamples = 3\nvalue = [3, 0]"] ;
238 -> 239 ;
240 [label="gini = 0.0\nsamples = 3\nvalue = [0, 3]"] ;
238 -> 240 ;
241 [label="gini = 0.0\nsamples = 40\nvalue = [0, 40]"] ;
205 -> 241 ;
242 [label="X[3] <= 1.5\ngini = 0.5\nsamples = 2\nvalue = [1, 1]"] ;
204 -> 242 ;
243 [label="gini = 0.0\nsamples = 1\nvalue = [0, 1]"] ;
242 -> 243 ;
244 [label="gini = 0.0\nsamples = 1\nvalue = [1, 0]"] ;
242 -> 244 ;
245 [label="gini = 0.0\nsamples = 53\nvalue = [0, 53]"] ;
189 -> 245 ;
246 [label="gini = 0.0\nsamples = 1\nvalue = [1, 0]"] ;
188 -> 246 ;
247 [label="X[6] <= 2.5\ngini = 0.3599\nsamples = 51\nvalue = [12, 39]"] ;
185 -> 247 ;
248 [label="X[3] <= 8.5\ngini = 0.4938\nsamples = 9\nvalue = [5, 4]"] ;
247 -> 248 ;
249 [label="X[11] <= 1.5\ngini = 0.375\nsamples = 4\nvalue = [1, 3]"] ;
248 -> 249 ;
250 [label="gini = 0.0\nsamples = 1\nvalue = [1, 0]"] ;
249 -> 250 ;
251 [label="gini = 0.0\nsamples = 3\nvalue = [0, 3]"] ;
249 -> 251 ;
252 [label="X[2] <= 0.5\ngini = 0.32\nsamples = 5\nvalue = [4, 1]"] ;
248 -> 252 ;
253 [label="gini = 0.0\nsamples = 1\nvalue = [0, 1]"] ;
252 -> 253 ;
254 [label="gini = 0.0\nsamples = 4\nvalue = [4, 0]"] ;
252 -> 254 ;
255 [label="X[7] <= 3.5\ngini = 0.2778\nsamples = 42\nvalue = [7, 35]"] ;
247 -> 255 ;
256 [label="X[16] <= 3.5\ngini = 0.0868\nsamples = 22\nvalue = [1, 21]"] ;
255 -> 256 ;
257 [label="gini = 0.0\nsamples = 20\nvalue = [0, 20]"] ;
256 -> 257 ;
258 [label="X[5] <= 1.5\ngini = 0.5\nsamples = 2\nvalue = [1, 1]"] ;
256 -> 258 ;
259 [label="gini = 0.0\nsamples = 1\nvalue = [0, 1]"] ;
258 -> 259 ;
260 [label="gini = 0.0\nsamples = 1\nvalue = [1, 0]"] ;
258 -> 260 ;
261 [label="X[14] <= 2.5\ngini = 0.42\nsamples = 20\nvalue = [6, 14]"] ;
255 -> 261 ;
262 [label="X[4] <= 1711.5\ngini = 0.3457\nsamples = 18\nvalue = [4, 14]"] ;
261 -> 262 ;
263 [label="gini = 0.0\nsamples = 8\nvalue = [0, 8]"] ;
262 -> 263 ;
264 [label="X[15] <= 1.5\ngini = 0.48\nsamples = 10\nvalue = [4, 6]"] ;
262 -> 264 ;
265 [label="gini = 0.0\nsamples = 3\nvalue = [3, 0]"] ;
264 -> 265 ;
266 [label="X[4] <= 1907.0\ngini = 0.2449\nsamples = 7\nvalue = [1, 6]"] ;
264 -> 266 ;
267 [label="gini = 0.0\nsamples = 1\nvalue = [1, 0]"] ;
266 -> 267 ;
268 [label="gini = 0.0\nsamples = 6\nvalue = [0, 6]"] ;
266 -> 268 ;
269 [label="gini = 0.0\nsamples = 2\nvalue = [2, 0]"] ;
261 -> 269 ;
270 [label="X[6] <= 3.5\ngini = 0.5\nsamples = 8\nvalue = [4, 4]"] ;
174 -> 270 ;
271 [label="gini = 0.0\nsamples = 3\nvalue = [3, 0]"] ;
270 -> 271 ;
272 [label="X[2] <= 3.5\ngini = 0.32\nsamples = 5\nvalue = [1, 4]"] ;
270 -> 272 ;
273 [label="gini = 0.0\nsamples = 4\nvalue = [0, 4]"] ;
272 -> 273 ;
274 [label="gini = 0.0\nsamples = 1\nvalue = [1, 0]"] ;
272 -> 274 ;
}